0.0, -17.0589751821, -111.364519328, -34.2224573472, -77.5284088226, -173.448335402, -78.3251499782, -7.59914159713, -0.250078527061, -67.9909688598, 27.5074143776, -38.1118362237, -1.58373784938, 161.322978822, -53.0824433046, -6.14968161, -0.0500785270605, 27.0983881114, 117.02449077, -116.639698984, -278.445410117, 189.137244294, 85.0662344267, -3.20205218894, -0.0500000000177, 114.292068596, 67.8592006588, -379.210578866, -541.438768594, 48.3133710072, 186.758002451, -0.0500000088482, 0.0, 135.45623399, 122.619267638, -461.053997831, -574.245952323, -36.0595751006, 170.409922759, 0.0, -0.500000000873, 40.0224288441, 230.945891311, -304.176316575, -374.125009614, 83.8196708699, 72.4164411606, -2.0500000187, -0.300050931051, -13.6543092815, 170.806938002, -45.5686296602, -34.8528407356, 155.849598043, -111.902179258, -11.4541888917, -0.050016977017, -16.6595035967, -125.322768118, -17.1253919008, -30.1620159786, -143.860922245, -114.776162011, -22.1545705999, -7.96491644544, 0.0, -37.6589751821, -176.614519328, -69.7724573473, -608.178408823, 105.051664598, -105.275149978, -31.1991415971, -0.950078527061, -350.24096886, -288.192585622, -260.861836224, 135.466262151, 9.62297882202, -202.282443305, -21.94968161, -0.0500785270605, -15.4516118887, 15.4744907702, 667.410301016, 528.704589883, -37.712755706, -30.3337655733, -5.70205218894, -2.75000000002, 22.9920685962, -20.0907993412, 123.239421134, -177.788768594, 57.2133710072, -299.691997549, -0.0500000088482, 0.0, -58.0437660099, -149.430732362, -156.853997831, 99.0040476767, -134.559575101, -370.590077241, 0.0, -2.15000000087, -236.827571156, -213.204108689, 35.7736834248, 138.074990386, -278.73032913, -300.583558839, -7.8500000187, -5.70005093105, -144.504309281, -54.3430619983, 48.4313703398, 170.497159264, -85.700401957, -150.852179258, 83.1458111083, -1.85001697702, -19.5595035967, -190.422768118, -48.5753919008, -91.0620159786, 132.689077755, -149.976162012, 121.8954294, -49.5149164454, 0.0, 31.2410248179, 137.635480672, 53.6775426528, -52.5284088226, -110.848335402, -63.3751499782, -7.59914159713, -0.350078527061, 151.70903114, 118.157414378, -64.2618362237, 96.4162621506, -31.327021178, -49.7824433046, -6.14968161, -0.15007852706, 36.1983881114, -146.62550923, -233.489698984, 82.7045898826, 25.887244294, -43.5337655733, -3.20205218894, -0.100000000018, -119.407931404, -477.540799341, -411.560578866, -37.5387685937, -62.7366289928, -86.5919975493, -0.0500000088482, 0.0, -134.34376601, -366.880732362, -142.703997831, -100.695952323, -336.709575101, -158.240077241, 0.0, -0.500000000873, -35.3775711559, -33.6041086893, 215.823683425, -108.275009614, -372.43032913, -176.133558839, -1.0000000187, 8.69994906895, 102.145690719, 127.106938002, 196.43137034, 118.647159264, 54.749598043, 69.6978207424, 11.5458111083, 2.94998302298, 48.1404964033, 157.727231882, 1.77460809919, 13.0879840214, 199.689077755, 223.273837989, 76.5454294001, -5.26491644544, 0.0, 32.0410248179, 37.035480672, -0.0224573472472, 151.421591177, 31.2516645977, -12.6251499782, -7.59914159713, 0.249921472939, -104.24096886, 79.1574143776, 19.9881637763, -9.73373784938, 162.372978822, 133.517556695, -6.29968161, 0.44992147294, -88.7516118886, -270.37550923, -229.389698984, 130.654589883, -46.762755706, -69.1337655733, -3.65205218894, -0.100000000018, -116.607931404, -306.740799341, 13.3894211339, 102.761231406, -246.836628993, -219.791997549, -0.0500000088482, 0.0, -115.19376601, -71.7807323619, -92.6539978312, 80.9040476767, -112.059575101, -120.290077241, 0.0, -0.550000000873, -15.1775711559, -147.104108689, -436.576316575, 31.5749903858, 311.16967087, 160.416441161, -2.9000000187, -0.300050931051, -16.0543092815, -24.5430619983, -174.66862966, -49.8028407356, 100.799598043, 96.3978207424, -23.4041888917, -0.050016977017, 31.6404964033, 98.3772318823, -18.3753919008, -63.4620159786, -45.0609222455, -105.976162011, -97.7045705999, -6.91491644544, 0.0, -16.7089751821, -110.114519328, -287.272457347, -245.328408823, -296.448335402, -131.175149978, -19.6491415971, -0.250078527061, -45.5909688598, -193.292585622, -134.761836224, -291.333737849, -160.577021178, -73.9324433046, -16.54968161, -0.0500785270605, -8.10161188865, 122.37449077, 42.4103010161, -61.1454101174, 61.037244294, 60.5162344267, 11.5979478111, 0.449999999982, 108.042068596, 310.359200659, -59.7605788661, -78.1387685937, 134.263371007, 190.508002451, 0.449999991152, 0.0, 238.00623399, 168.519267638, 15.0460021688, 139.704047677, 168.840424899, 108.559922759, 0.0, 4.19999999913, 258.922428844, 142.695891311, 330.473683425, 263.424990386, 15.6196708699, -105.933558839, -2.1000000187, 0.749949068949, 20.4456907185, -157.493061998, -30.5686296602, 41.2471592644, -281.250401957, -226.652179258, -15.5541888917, -0.050016977017, -15.0095035967, -91.4227681177, -186.575391901, -181.512015979, -289.660922245, -134.126162011, -25.7045705999, 0.285083554556, 0.0, 36.3410248179, 259.585480672, -27.7724573472, -29.4284088226, 160.301664598, 198.624850022, -13.6491415971, 0.749921472939, 57.4590311402, 144.307414378, 8.03816377634, -56.7837378494, -159.327021178, -16.6824433046, -11.59968161, -0.0500785270605, 68.2483881114, 202.32449077, 46.7603010161, -173.995410117, -382.962755706, -186.983765573, -4.40205218894, -0.150000000018, 75.0920685962, 163.059200659, 111.089421134, 45.4612314063, -73.5866289928, -227.341997549, -0.0500000088482, 0.0, -154.94376601, -53.2307323619, -99.3039978312, -150.345952323, -14.6595751006, -96.3400772414, 0.0, -0.550000000873, -111.577571156, -310.954108689, -257.976316575, -117.275009614, 27.5696708699, -33.6835588394, -2.1000000187, -0.300050931051, 57.1456907185, -87.8430619983, -78.1186296602, 15.4971592644, -52.850401957, -80.8021792576, -12.0541888917, -0.050016977017, 42.6404964033, 210.477231882, 0.72460809919, -112.662015979, -216.710922245, -106.026162011, -38.5045705999, -7.56491644544, 0.0, -17.1589751821, -217.814519328, -133.322457347, -72.9284088226, -249.448335402, -76.9751499782, -7.59914159713, -0.250078527061, -93.5409688598, -83.8925856224, -46.3618362237, -206.333737849, -341.727021178, -100.232443305, -6.14968161, -0.0500785270605, -81.9516118886, 99.8744907702, -18.2396989839, -278.145410117, -431.212755706, -103.633765573, -3.20205218894, -0.100000000018, -37.4579314038, 13.4592006588, -55.5605788661, -249.238768594, -248.636628993, -147.791997549, -0.0500000088482, 0.0, -70.7937660099, 335.169267638, 226.896002169, -13.5459523233, -53.7095751006, -68.5400772414, 0.0, -0.500000000873, -168.327571156, 406.895891311, 96.0736834248, -182.275009614, 6.86967086991, 273.466441161, 13.1999999813, -0.300050931051, -68.5043092815, 34.9069380017, 129.93137034, -320.752840736, 152.599598043, 174.097820742, -57.7541888917, -0.050016977017, -17.1595035967, -227.122768118, -175.175391901, -19.0120159786, 252.039077755, 41.1238379885, -36.4545705999, -10.4149164454, 0.0, -28.2589751821, 65.535480672, -36.4224573472, 21.9715911774, 211.901664598, 146.424850022, 82.7508584029, -0.250078527061, -20.6909688598, 52.8074143776, 31.3381637763, 275.916262151, 9.62297882202, 40.8675566954, 57.35031839, -0.0500785270605, -129.801611889, -157.22550923, -170.589698984, -13.1454101174, 18.837244294, 3.21623442672, 5.44794781106, -0.100000000018, -152.407931404, -144.890799341, -296.560578866, 1.01123140628, 195.813371007, 30.0080024507, -0.0500000088482, 0.0, -53.3937660099, -33.8307323619, -11.5539978312, 129.654047677, 174.940424899, 62.8099227586, 0.0, -0.550000000873, -52.3775711559, 102.245891311, 202.223683425, 64.8749903858, -108.43032913, -113.483558839, -2.1000000187, -0.300050931051, -38.0043092815, -29.2430619983, 24.8313703398, -246.652840736, -483.400401957, -195.402179258, -11.7541888917, -0.050016977017, -42.8095035967, -20.4727681177, -241.175391901, -370.362015979, -368.360922245, -116.826162011, -22.5045705999, -1.76491644544, 0.0, -53.0089751821, -169.464519328, -227.072457347, -111.578408823, -159.548335402, -278.925149978, -22.3491415971, 12.0499214729, -26.4409688598, 147.357414378, -92.7118362237, -161.933737849, 263.772978822, -12.7824433046, -13.69968161, -0.0500785270605, 151.098388111, 359.17449077, -140.139698984, -136.095410117, 248.437244294, 75.1662344267, -11.1020521889, -0.100000000018, -150.357931404, -69.9407993411, 387.289421134, -117.938768594, -27.4366289928, -163.291997549, -0.0500000088482, 0.0, -421.84376601, -412.780732362, 458.796002169, 69.1040476767, -308.409575101, -379.990077241, 0.0, -0.550000000873, -156.277571156, 450.695891311, 86.0236834248, 277.974990386, 153.01967087, -189.633558839, -2.9000000187, -4.10005093105, -215.504309281, 255.906938002, -474.41862966, -150.402840736, 190.149598043, -72.2521792576, -23.8041888917, -1.30001697702, -61.0095035967, -402.272768118, -122.425391901, 41.8379840214, -238.560922245, -54.8761620115, -32.2545705999, -41.5649164454, 0.0, -31.3089751821, -105.714519328, 29.9275426528, 3.22159117737, -200.098335402, -68.8251499782, -11.4491415971, -2.70007852706, 43.4590311402, 127.957414378, 8.23816377634, -19.9837378494, 100.122978822, 49.5175566954, -15.84968161, -2.50007852706, 117.598388111, 197.72449077, -63.1896989839, -41.0954101174, 440.087244294, 51.5662344267, -20.3020521889, -0.0500000000177, -182.307931404, 123.609200659, 184.139421134, 82.8612314063, 216.663371007, -0.441997549325, -0.800000008848, 0.0, -235.59376601, -106.530732362, 167.646002169, -247.945952323, -141.959575101, -4.39007724142, 0.0, -0.500000000873, -94.627571156, -475.504108689, -473.976316575, -373.825009614, -90.3803291301, -75.5335588394, 2.5999999813, -0.300050931051, 64.1956907185, -97.0930619983, -203.56862966, -161.302840736, -271.950401957, 25.8478207424, -7.9041888917, -0.050016977017, -26.0595035967, -68.5727681177, -113.725391901, 106.687984021, -50.3609222455, -42.6261620115, -31.9045705999, -23.1649164454, 